FANN_FLO_2.1
num_layers=3
learning_rate=0.700000
connection_rate=1.000000
network_type=0
learning_momentum=0.000000
training_algorithm=2
train_error_function=1
train_stop_function=0
cascade_output_change_fraction=0.010000
quickprop_decay=-0.000100
quickprop_mu=1.750000
rprop_increase_factor=1.200000
rprop_decrease_factor=0.500000
rprop_delta_min=0.000000
rprop_delta_max=50.000000
rprop_delta_zero=0.100000
cascade_output_stagnation_epochs=12
cascade_candidate_change_fraction=0.010000
cascade_candidate_stagnation_epochs=12
cascade_max_out_epochs=150
cascade_min_out_epochs=50
cascade_max_cand_epochs=150
cascade_min_cand_epochs=50
cascade_num_candidate_groups=2
bit_fail_limit=3.49999994039535522461e-01
cascade_candidate_limit=1.00000000000000000000e+03
cascade_weight_multiplier=4.00000005960464477539e-01
cascade_activation_functions_count=10
cascade_activation_functions=3 5 7 8 10 11 14 15 16 17 
cascade_activation_steepnesses_count=4
cascade_activation_steepnesses=2.50000000000000000000e-01 5.00000000000000000000e-01 7.50000000000000000000e-01 1.00000000000000000000e+00 
layer_sizes=12 4 2 
scale_included=0
neurons (num_inputs, activation_function, activation_steepness)=(0, 0, 0.00000000000000000000e+00) (0, 0, 0.00000000000000000000e+00) (0, 0, 0.00000000000000000000e+00) (0, 0, 0.00000000000000000000e+00) (0, 0, 0.00000000000000000000e+00) (0, 0, 0.00000000000000000000e+00) (0, 0, 0.00000000000000000000e+00) (0, 0, 0.00000000000000000000e+00) (0, 0, 0.00000000000000000000e+00) (0, 0, 0.00000000000000000000e+00) (0, 0, 0.00000000000000000000e+00) (0, 0, 0.00000000000000000000e+00) (12, 5, 5.00000000000000000000e-01) (12, 5, 5.00000000000000000000e-01) (12, 5, 5.00000000000000000000e-01) (0, 5, 0.00000000000000000000e+00) (4, 5, 5.00000000000000000000e-01) (0, 5, 0.00000000000000000000e+00) 
connections (connected_to_neuron, weight)=(0, 2.59522867202758789062e+00) (1, 2.41656064987182617188e+00) (2, 2.59158086776733398438e+00) (3, 2.53328847885131835938e+00) (4, 2.40952444076538085938e+00) (5, 2.41011476516723632812e+00) (6, 2.50277876853942871094e+00) (7, 2.56365108489990234375e+00) (8, 2.53762340545654296875e+00) (9, 2.55643558502197265625e+00) (10, 9.66074228286743164062e-01) (11, 8.80692601203918457031e-01) (0, 2.54933834075927734375e+00) (1, 2.46247434616088867188e+00) (2, 2.43642139434814453125e+00) (3, 2.50891065597534179688e+00) (4, 2.43987274169921875000e+00) (5, 2.58366584777832031250e+00) (6, 2.54966306686401367188e+00) (7, 2.54237318038940429688e+00) (8, 2.45103311538696289062e+00) (9, 2.46007633209228515625e+00) (10, 2.54337167739868164062e+00) (11, 2.49711465835571289062e+00) (0, 2.54669046401977539062e+00) (1, 2.45048666000366210938e+00) (2, 2.49689936637878417969e+00) (3, 2.44997787475585937500e+00) (4, 2.45430231094360351562e+00) (5, 2.44456720352172851562e+00) (6, 2.58610868453979492188e+00) (7, 2.45366191864013671875e+00) (8, 2.46525907516479492188e+00) (9, 2.58182048797607421875e+00) (10, 9.65158343315124511719e-01) (11, 8.52991044521331787109e-01) (12, 3.65675061941146850586e-01) (13, 2.49799180030822753906e+00) (14, 4.16305392980575561523e-01) (15, 2.53782129287719726562e+00) 
