FANN_FLO_2.1
num_layers=3
learning_rate=0.700000
connection_rate=1.000000
network_type=0
learning_momentum=0.000000
training_algorithm=2
train_error_function=1
train_stop_function=0
cascade_output_change_fraction=0.010000
quickprop_decay=-0.000100
quickprop_mu=1.750000
rprop_increase_factor=1.200000
rprop_decrease_factor=0.500000
rprop_delta_min=0.000000
rprop_delta_max=50.000000
rprop_delta_zero=0.100000
cascade_output_stagnation_epochs=12
cascade_candidate_change_fraction=0.010000
cascade_candidate_stagnation_epochs=12
cascade_max_out_epochs=150
cascade_min_out_epochs=50
cascade_max_cand_epochs=150
cascade_min_cand_epochs=50
cascade_num_candidate_groups=2
bit_fail_limit=3.49999994039535522461e-01
cascade_candidate_limit=1.00000000000000000000e+03
cascade_weight_multiplier=4.00000005960464477539e-01
cascade_activation_functions_count=10
cascade_activation_functions=3 5 7 8 10 11 14 15 16 17 
cascade_activation_steepnesses_count=4
cascade_activation_steepnesses=2.50000000000000000000e-01 5.00000000000000000000e-01 7.50000000000000000000e-01 1.00000000000000000000e+00 
layer_sizes=12 4 2 
scale_included=0
neurons (num_inputs, activation_function, activation_steepness)=(0, 0, 0.00000000000000000000e+00) (0, 0, 0.00000000000000000000e+00) (0, 0, 0.00000000000000000000e+00) (0, 0, 0.00000000000000000000e+00) (0, 0, 0.00000000000000000000e+00) (0, 0, 0.00000000000000000000e+00) (0, 0, 0.00000000000000000000e+00) (0, 0, 0.00000000000000000000e+00) (0, 0, 0.00000000000000000000e+00) (0, 0, 0.00000000000000000000e+00) (0, 0, 0.00000000000000000000e+00) (0, 0, 0.00000000000000000000e+00) (12, 5, 5.00000000000000000000e-01) (12, 5, 5.00000000000000000000e-01) (12, 5, 5.00000000000000000000e-01) (0, 5, 0.00000000000000000000e+00) (4, 5, 5.00000000000000000000e-01) (0, 5, 0.00000000000000000000e+00) 
connections (connected_to_neuron, weight)=(0, 1.58662617206573486328e+00) (1, 1.55035793781280517578e+00) (2, 1.55506956577301025391e+00) (3, 1.50657355785369873047e+00) (4, 1.57814252376556396484e+00) (5, 1.55399000644683837891e+00) (6, 1.57608461380004882812e+00) (7, 1.46527969837188720703e+00) (8, 1.56045758724212646484e+00) (9, 1.64953315258026123047e+00) (10, -1.58737969398498535156e+00) (11, -1.52051568031311035156e+00) (0, 1.53645503520965576172e+00) (1, 1.59985041618347167969e+00) (2, 1.46994936466217041016e+00) (3, 1.53672921657562255859e+00) (4, 1.45463025569915771484e+00) (5, 1.50348687171936035156e+00) (6, 1.57189261913299560547e+00) (7, 1.57297527790069580078e+00) (8, 1.51794373989105224609e+00) (9, 1.54250943660736083984e+00) (10, 7.02581524848937988281e-01) (11, 7.24857568740844726562e-01) (0, 1.52752029895782470703e+00) (1, 1.49488413333892822266e+00) (2, 1.50304222106933593750e+00) (3, 1.49154055118560791016e+00) (4, 1.50666773319244384766e+00) (5, 1.59655845165252685547e+00) (6, 1.50586259365081787109e+00) (7, 1.64338505268096923828e+00) (8, 1.49700760841369628906e+00) (9, 1.61102354526519775391e+00) (10, 1.50004982948303222656e+00) (11, 1.62524139881134033203e+00) (12, -1.58471286296844482422e+00) (13, 5.52112162113189697266e-01) (14, 1.64061224460601806641e+00) (15, 1.62565338611602783203e+00) 
